{"context": " More than 1 year has passed since last update.\n\n\u52d5\u4f5c\u74b0\u5883\nWindows 7 Home 64bit\nOpenCV 3.1.0\nVisual Studio 2013\n\n\u306f\u3058\u3081\u306b\n\u3053\u308c\u307e\u3067\u306a\u305c\u304bCascadeDetector\u306b\u5b58\u5728\u3057\u3066\u3044\u305fHOG\u691c\u51fa\u5668\u306f\u524a\u9664\u3055\u308c\u3001\u4f7f\u7528\u4e0d\u53ef\u3068\u306a\u3063\u305f\u3002\n\uff08\u30bd\u30fc\u30b9\u306f\u6574\u7406\u3055\u308c\u3066\u3044\u306a\u304f\u3001\u3044\u304f\u3064\u6b8b\u9ab8\u304c\u6b8b\u3063\u3066\u3044\u308b\u3002Type\u6307\u5b9a\u3067HOG\u3092\u306f\u306d\u3066\u3044\u308b\u3002\u307e\u305fdata\u30d5\u30a9\u30eb\u30c0\u30fc\u306b\u306f\u3001hogcascade_pedestrian\u306e\u8f9e\u66f8\u304c\u6b8b\u3063\u305f\u307e\u307e\u3067\u3042\u308b\u3002\uff09\n\u5909\u308f\u308a\u306b\u3001OpenCV 3.1\u3067\u3088\u3046\u3084\u304fHOG\u306e\u8aac\u660e\u304c\u8a2d\u3051\u3089\u308c\u305f\u3002\n\n\u4f7f\u3044\u65b9\n\u30d5\u30a1\u30a4\u30eb\u306e\u8aad\u307f\u8fbc\u307f\u3001GRAY\u3078\u306e\u5909\u63db\u3001\u9818\u57df\u306e\u8868\u793a\u306f\u7701\u7565\ncv::HOGDescriptor hog;\nhog.setSVMDetector(hog.getDefaultPeopleDetector());\nstd::vector< cv::Rect > locations;\nhog.detectMultiScale(gray, locations);\n\n\u4ee5\u4e0a\u3067\u691c\u51fa\u3067\u304d\u308b\u3002\u307e\u305f\u3001detectMultiScale\u306e\u30d1\u30e9\u30e1\u30fc\u30bf\u304c\u3044\u304f\u3064\u304b\u7701\u7565\u3055\u308c\u3066\u304a\u308a\u3001\u304d\u3061\u3093\u3068\u66f8\u304f\u3068\nhog.detectMultiScale(gray, locations, 0, cv::Size(), cv::Size(), 1.05, 2, false);\n\n\u3068\u306a\u308b\u3002\nDefaultPeopleDetector\u306e\u8f9e\u66f8\u306f\u3001INRIA\u306e\u30c7\u30fc\u30bf\u3067\u4f5c\u6210\u3055\u308c\u305f\u3082\u306e\u3067\u30012.4\u306e\u3053\u308d\u304b\u3089\u306a\u305c\u304b\u30bd\u30fc\u30b9\u306b\u8f9e\u66f8\u30c7\u30fc\u30bf\u304c\u30cf\u30fc\u30c9\u30b3\u30fc\u30c7\u30a3\u30f3\u30b0\u3055\u308c\u3066\u3044\u308b\u3002\u753b\u50cf\u306e\u30b5\u30a4\u30ba\u306f\u300164x128\u3068\u5927\u304d\u3081\u3067\u3042\u308b\u3002\n\u5192\u982d\u306e\u753b\u50cf\u306f\u3001\u30c7\u30d5\u30a9\u30eb\u30c8\u8f9e\u66f8\u3067\u30a2\u30cb\u30e1\u306e\u4eba\u3092\u691c\u51fa\u3057\u305f\u7d50\u679c\u3067\u3042\u308b\u3002\u30a2\u30cb\u30e1\u3060\u304b\u3089\u691c\u51fa\u7cbe\u5ea6\u304c\u3044\u307e\u3072\u3068\u3064\u3067\u306f\u306a\u304f\u3001\u4eba\u3067\u3082\u691c\u51fa\u7cbe\u5ea6\u306f\u304b\u308f\u3089\u306a\u3044\u3002\n\n\u5c0f\u3055\u3044\u8f9e\u66f8\n\u307e\u305f\u3001\u4ee3\u308f\u308a\u306e\u8f9e\u66f8\u3068\u3057\u3066DaimlerPeopleDetector\u3082\u63d0\u4f9b\u3055\u308c\u3066\u304a\u308a\u3001\u3053\u3061\u3089\u306e\u753b\u50cf\u306e\u304a\u304a\u304d\u3055\u306f\u300148x96\u3067\u3001\u4f7f\u7528\u65b9\u6cd5\u306f\u4ee5\u4e0b\u306e\u7528\u3067\u3042\u308b\u3002\nhog.winSize = cv::Size(48, 96);\nhog.setSVMDetector(hog.getDaimlerPeopleDetector()));\n\nDaimler\u8f9e\u66f8\u3067\u306e\u691c\u51fa\u7d50\u679c\u3001\u30c7\u30d5\u30a9\u30eb\u30c8\u306b\u6bd4\u3079\u3067\u691c\u51fa\u67a0\u304c\u5897\u3048\u3066\u3044\u308b\u304c\u8aa4\u691c\u51fa\u304c\u591a\u3044\u3002\n\n\n\u30aa\u30ea\u30b8\u30ca\u30eb\u8f9e\u66f8\u4f5c\u6210\n\u3055\u3089\u306b\u30013.1\u304b\u3089\u306f\u3001\u8f9e\u66f8\u306e\u4f5c\u6210\u65b9\u6cd5\u3082\u30b5\u30dd\u30fc\u30c8\u3055\u308c\u308b\u3088\u3046\u306b\u306a\u308a\u3001\n\nopencv31\\sources\\samples\\cpp\\train_HOG.cpp\n\n\u3092\u4f7f\u7528\u3059\u308c\u3070\u81ea\u5206\u3067\u8f9e\u66f8\u3092\u4f5c\u6210\u3059\u308b\u3053\u3068\u304c\u3067\u304d\u308b\u3002\n\u6ce8\u610f\n\u30ea\u30ea\u30fc\u30b9\u30e2\u30fc\u30c9\u3067\u306f\u3001\u306a\u305c\u304b\u843d\u3061\u308b\u306e\u3067debug\u3067\u4f7f\u7528\u3057\u3066\u3044\u308b\u3002ubuntu\u3067\u78ba\u8a8d\u3057\u3066\u307f\u308b\n![res2.PNG](https://qiita-image-store.s3.amazonaws.com/0/105738/7ba4285f-49b4-3d4d-c5af-a4e246b9ea29.png)\n\n#\u52d5\u4f5c\u74b0\u5883\nWindows 7 Home 64bit\nOpenCV 3.1.0\nVisual Studio 2013\n\n#\u306f\u3058\u3081\u306b\n\u3053\u308c\u307e\u3067\u306a\u305c\u304bCascadeDetector\u306b\u5b58\u5728\u3057\u3066\u3044\u305fHOG\u691c\u51fa\u5668\u306f\u524a\u9664\u3055\u308c\u3001\u4f7f\u7528\u4e0d\u53ef\u3068\u306a\u3063\u305f\u3002\n\uff08\u30bd\u30fc\u30b9\u306f\u6574\u7406\u3055\u308c\u3066\u3044\u306a\u304f\u3001\u3044\u304f\u3064\u6b8b\u9ab8\u304c\u6b8b\u3063\u3066\u3044\u308b\u3002Type\u6307\u5b9a\u3067HOG\u3092\u306f\u306d\u3066\u3044\u308b\u3002\u307e\u305f[data\u30d5\u30a9\u30eb\u30c0\u30fc](https://github.com/Itseez/opencv/blob/3.1.0/data/hogcascades/hogcascade_pedestrians.xml)\u306b\u306f\u3001hogcascade_pedestrian\u306e\u8f9e\u66f8\u304c\u6b8b\u3063\u305f\u307e\u307e\u3067\u3042\u308b\u3002\uff09\n\u5909\u308f\u308a\u306b\u3001OpenCV 3.1\u3067\u3088\u3046\u3084\u304fHOG\u306e\u8aac\u660e\u304c\u8a2d\u3051\u3089\u308c\u305f\u3002\n\n##\u4f7f\u3044\u65b9\n\u30d5\u30a1\u30a4\u30eb\u306e\u8aad\u307f\u8fbc\u307f\u3001GRAY\u3078\u306e\u5909\u63db\u3001\u9818\u57df\u306e\u8868\u793a\u306f\u7701\u7565\n\n    cv::HOGDescriptor hog;\n    hog.setSVMDetector(hog.getDefaultPeopleDetector());\n    std::vector< cv::Rect > locations;\n    hog.detectMultiScale(gray, locations);\n\n\u4ee5\u4e0a\u3067\u691c\u51fa\u3067\u304d\u308b\u3002\u307e\u305f\u3001detectMultiScale\u306e\u30d1\u30e9\u30e1\u30fc\u30bf\u304c\u3044\u304f\u3064\u304b\u7701\u7565\u3055\u308c\u3066\u304a\u308a\u3001\u304d\u3061\u3093\u3068\u66f8\u304f\u3068\n\n    hog.detectMultiScale(gray, locations, 0, cv::Size(), cv::Size(), 1.05, 2, false);\n\n\u3068\u306a\u308b\u3002\nDefaultPeopleDetector\u306e\u8f9e\u66f8\u306f\u3001INRIA\u306e\u30c7\u30fc\u30bf\u3067\u4f5c\u6210\u3055\u308c\u305f\u3082\u306e\u3067\u30012.4\u306e\u3053\u308d\u304b\u3089\u306a\u305c\u304b\u30bd\u30fc\u30b9\u306b\u8f9e\u66f8\u30c7\u30fc\u30bf\u304c\u30cf\u30fc\u30c9\u30b3\u30fc\u30c7\u30a3\u30f3\u30b0\u3055\u308c\u3066\u3044\u308b\u3002\u753b\u50cf\u306e\u30b5\u30a4\u30ba\u306f\u300164x128\u3068\u5927\u304d\u3081\u3067\u3042\u308b\u3002\n\u5192\u982d\u306e\u753b\u50cf\u306f\u3001\u30c7\u30d5\u30a9\u30eb\u30c8\u8f9e\u66f8\u3067\u30a2\u30cb\u30e1\u306e\u4eba\u3092\u691c\u51fa\u3057\u305f\u7d50\u679c\u3067\u3042\u308b\u3002\u30a2\u30cb\u30e1\u3060\u304b\u3089\u691c\u51fa\u7cbe\u5ea6\u304c\u3044\u307e\u3072\u3068\u3064\u3067\u306f\u306a\u304f\u3001\u4eba\u3067\u3082\u691c\u51fa\u7cbe\u5ea6\u306f\u304b\u308f\u3089\u306a\u3044\u3002\n\n##\u5c0f\u3055\u3044\u8f9e\u66f8\n\u307e\u305f\u3001\u4ee3\u308f\u308a\u306e\u8f9e\u66f8\u3068\u3057\u3066DaimlerPeopleDetector\u3082\u63d0\u4f9b\u3055\u308c\u3066\u304a\u308a\u3001\u3053\u3061\u3089\u306e\u753b\u50cf\u306e\u304a\u304a\u304d\u3055\u306f\u300148x96\u3067\u3001\u4f7f\u7528\u65b9\u6cd5\u306f\u4ee5\u4e0b\u306e\u7528\u3067\u3042\u308b\u3002\n\n    hog.winSize = cv::Size(48, 96);\n    hog.setSVMDetector(hog.getDaimlerPeopleDetector()));\n\nDaimler\u8f9e\u66f8\u3067\u306e\u691c\u51fa\u7d50\u679c\u3001\u30c7\u30d5\u30a9\u30eb\u30c8\u306b\u6bd4\u3079\u3067\u691c\u51fa\u67a0\u304c\u5897\u3048\u3066\u3044\u308b\u304c\u8aa4\u691c\u51fa\u304c\u591a\u3044\u3002\n\n![res1.PNG](https://qiita-image-store.s3.amazonaws.com/0/105738/a6aaea37-561f-1bcb-3220-c1f2380a6802.png)\n\n\n##\u30aa\u30ea\u30b8\u30ca\u30eb\u8f9e\u66f8\u4f5c\u6210\n\u3055\u3089\u306b\u30013.1\u304b\u3089\u306f\u3001\u8f9e\u66f8\u306e\u4f5c\u6210\u65b9\u6cd5\u3082\u30b5\u30dd\u30fc\u30c8\u3055\u308c\u308b\u3088\u3046\u306b\u306a\u308a\u3001\n```\nopencv31\\sources\\samples\\cpp\\train_HOG.cpp\n```\n\u3092\u4f7f\u7528\u3059\u308c\u3070\u81ea\u5206\u3067\u8f9e\u66f8\u3092\u4f5c\u6210\u3059\u308b\u3053\u3068\u304c\u3067\u304d\u308b\u3002\n\n**\u6ce8\u610f**\n\u30ea\u30ea\u30fc\u30b9\u30e2\u30fc\u30c9\u3067\u306f\u3001\u306a\u305c\u304b\u843d\u3061\u308b\u306e\u3067debug\u3067\u4f7f\u7528\u3057\u3066\u3044\u308b\u3002ubuntu\u3067\u78ba\u8a8d\u3057\u3066\u307f\u308b\n", "tags": ["OpenCV", "\u753b\u50cf\u8a8d\u8b58", "\u753b\u50cf\u51e6\u7406"]}